svm_type one_class
kernel_type rbf
gamma 0.25
nr_class 2
total_sv 3
rho 0.9835864121891241
SV
0.8236384097661553 1:1.0 2:-1.0 3:-1.0 4:-1.0 
0.462876537246894 1:-1.0 2:-1.0 3:0.25 4:-0.555556 
0.7134850529869508 1:-0.6 2:-1.0 3:1.0 4:1.0 
